{
  "levels": [
    {
      "inputs": [0.6581956666731331, 0.3609093068005613, 0, 0, 0],
      "outputs": [0, 0, 0, 1, 1, 1],
      "biases": [
        0.08633585619276829, 0.44181459448916666, 0.6621607538614159,
        -0.3005850269173996, -0.33362597686190043, 0.0018361040523147965
      ],
      "weights": [
        [
          0.002949236319869014, -0.6801138479397283, -0.6222191712905488,
          -0.1816086392187545, -0.08606163123810787, 0.2802675315228823
        ],
        [
          -0.4286254794073038, -0.31542841741467476, -0.035303350813317244,
          -0.4048713361463916, 0.10692666921797225, -0.453413392569873
        ],
        [
          -0.096052242114057, -0.47977729348432957, -0.3546619475209253,
          -0.6320147690612605, -0.5144088610715416, -0.48217212144570726
        ],
        [
          0.38763954388570193, -0.20358803547057883, 0.5572967655602854,
          0.4449395941620226, -0.40903357028523113, 0.22228782884794138
        ],
        [
          0.4484002079732787, -0.36149054920629603, -0.733624460061001,
          0.021183708763828392, -0.11340149000617905, -0.07208614363773648
        ]
      ]
    },
    {
      "inputs": [0, 0, 0, 1, 1, 1],
      "outputs": [1, 0, 0, 0],
      "biases": [
        -0.5141880614831777, 0.014535588945909728, 0.21075232968760327,
        -0.05591434113954895
      ],
      "weights": [
        [
          -0.1740825180967785, 0.2781375625419278, -0.03316607780648294,
          0.020776688646906447
        ],
        [
          -0.4439727382309241, -0.3931662123504521, -0.23447367355101478,
          -0.40193665769266224
        ],
        [
          0.569270162136292, 0.5317251019014009, -0.5817944411369278,
          0.34264933266918496
        ],
        [
          0.4458712283250498, 0.010622882851390653, -0.15458668159975833,
          -0.3916111049302706
        ],
        [
          0.37830688542200225, -0.5575537464585574, 0.2735378301340463,
          -0.31025803963100496
        ],
        [
          -0.16915322401220437, -0.000006710047729771573, -0.16233250074152836,
          -0.3413480798197913
        ]
      ]
    }
  ]
}
