{
  "levels": [
    {
      "inputs": [0, 0, 0, 0.2166085493171539, 0.5572929128717452],
      "outputs": [
        -0.005754165070843351, -0.07295109127059204, 0.283263816589712,
        -0.02579234715331863, 0.17652812929230868, -0.22823742146553413
      ],
      "biases": [
        -0.10610082362208673, 0.24446468584315625, 0.21749241012480625,
        0.08171996751188156, 0.10260133783600109, -0.019239368726970678
      ],
      "weights": [
        [
          -0.016409550820645113, 0.20091928316067126, -0.010927411060072972,
          0.22453170894268512, -0.03659693099923947, -0.4341749448630753
        ],
        [
          0.08047122554537137, -0.016927290927745843, -0.26066599113722344,
          0.20977637287889148, 0.037530598757586846, 0.2877915414704742
        ],
        [
          -0.18302474330119176, -0.017729196030143043, -0.16827101401150033,
          0.15561835810207317, 0.06293606701547148, -0.23774550104247036
        ],
        [
          0.429950039169429, -0.36122511173226685, 0.2523366406408378,
          0.0649438124644033, 0.13391815295292864, -0.44476298699538563
        ],
        [
          0.012947842350723923, -0.4293992455946837, 0.03423044859377603,
          -0.218171483177758, 0.08395532659373164, -0.2094955761645814
        ]
      ]
    },
    {
      "inputs": [
        -0.005754165070843351, -0.07295109127059204, 0.283263816589712,
        -0.02579234715331863, 0.17652812929230868, -0.22823742146553413
      ],
      "outputs": [
        0.15626576923198146, -0.0016515791791658092, -0.04774924829849465,
        -0.1372805606228099
      ],
      "biases": [
        0.25281883187462095, 0.03551494384315412, 0.1040391227024489,
        0.09071813559052243
      ],
      "weights": [
        [
          0.24280412950676006, 0.27767674794765385, -0.14143004643365248,
          -0.025020085022811812
        ],
        [
          -0.03135161560008675, -0.09772702506702237, 0.4204066003015527,
          -0.11458472026954032
        ],
        [
          -0.24936427588197999, -0.2503269489806361, -0.19888226839915105,
          -0.2940161223806481
        ],
        [
          -0.0014818888531927229, 0.10138080107928901, -0.050833503476960154,
          0.09013777392636978
        ],
        [
          0.060123411966643475, -0.17536697665046924, -0.17146788063940183,
          -0.17665831809939098
        ],
        [
          0.15846639994304676, -0.27069443698334916, 0.16068996092580556,
          0.5283089359113534
        ]
      ]
    }
  ]
}
